<?xml version="1.0"?>
<opencv_storage>
<cascade>
  <stageType>BOOST</stageType>
  <featureType>HAAR</featureType>
  <height>24</height>
  <width>24</width>
  <stageParams>
    <boostType>GAB</boostType>
    <minHitRate>9.9500000476837158e-01</minHitRate>
    <maxFalseAlarm>5.0000000000000000e-01</maxFalseAlarm>
    <weightTrimRate>9.4999999999999996e-01</weightTrimRate>
    <maxDepth>1</maxDepth>
    <maxWeakCount>100</maxWeakCount></stageParams>
  <featureParams>
    <maxCatCount>0</maxCatCount>
    <featSize>1</featSize>
    <mode>BASIC</mode></featureParams>
  <stageNum>27</stageNum>
  <stages>
    <!-- stage 0 -->
    <_>
      <maxWeakCount>4</maxWeakCount>
      <stageThreshold>-7.2476655244827271e-01</stageThreshold>
      <weakClassifiers>
        <_>
          <internalNodes>
            0 -1 64 -2.9624109156429768e-03</internalNodes>
          <leafValues>
            8.1690138578414917e-01 -6.7676764726638794e-01</leafValues></_>
        <_>
          <internalNodes>
            0 -1 34 -1.4276921283453703e-03</internalNodes>
          <leafValues>
            6.0322302579879761e-01 -9.0860056877136230e-01</leafValues></_>
        <_>
          <internalNodes>
            0 -1 75 1.4175029471516609e-02</internalNodes>
          <leafValues>
            4.5597329735755920e-01 -9.8783129453659058e-01</leafValues></_>
        <_>
          <internalNodes>
            0 -1 25 -5.8194327721139416e-05</internalNodes>
          <leafValues>
            -8.6219173669815063e-01 4.0462845563888550e-01</leafValues></_></weakClassifiers></_>
    <!-- stage 1 -->
    <_>
      <maxWeakCount>3</maxWeakCount>
      <stageThreshold>-6.1248141527175903e-01</stageThreshold>
      <weakClassifiers>
        <_>
          <internalNodes>
            0 -1 63 -5.7974765077233315e-03</internalNodes>
          <leafValues>
            9.6666663885116577e-01 -5.5371898412704468e-01</leafValues></_>
        <_>
          <internalNodes>
            0 -1 119 -2.4445299059152603e-02</internalNodes>
          <leafValues>
            6.5698444843292236e-01 -7.1406883001327515e-01</leafValues></_>
        <_>
          <internalNodes>
            0 -1 35 -2.4799026548862457e-02</internalNodes>
          <leafValues>
            6.5530645847320557e-01 -7.1482694149017334e-01</leafValues></_></weakClassifiers></_>
    <!-- stage 2 -->
    <_>
      <maxWeakCount>5</maxWeakCount>
      <stageThreshold>-9.5159542560577393e-01</stageThreshold>
      <weakClassifiers>
        <_>
          <internalNodes>
            0 -1 34 -5.7789832353591919e-03</internalNodes>
          <leafValues>
            7.7777779102325439e-01 -6.4948451519012451e-01</leafValues></_>
        <_>
          <internalNodes>
            0 -1 56 -4.5176222920417786e-02</internalNodes>
          <leafValues>
            6.4486676454544067e-01 -7.6271420717239380e-01</leafValues></_>
        <_>
          <internalNodes>
            0 -1 54 -9.3079649377614260e-04</internalNodes>
          <leafValues>
            -7.6018124818801880e-01 4.9900466203689575e-01</leafValues></_>
        <_>
          <internalNodes>
            0 -1 69 -3.6760789807885885e-03</internalNodes>
          <leafValues>
            4.4756054878234863e-01 -8.0531829595565796e-01</leafValues></_>
        <_>
          <internalNodes>
            0 -1 52 5.9469405096024275e-04</internalNodes>
          <leafValues>
            -5.5022466182708740e-01 7.6691693067550659e-01</leafValues></_></weakClassifiers></_>
    <!-- stage 3 -->
    <_>
      <maxWeakCount>3</maxWeakCount>
      <stageThreshold>-2.6123848557472229e-01</stageThreshold>
      <weakClassifiers>
        <_>
          <internalNodes>
            0 -1 116 -9.2719700187444687e-03</internalNodes>
          <leafValues>
            7.5757575035095215e-01 -4.6788990497589111e-01</leafValues></_>
        <_>
          <internalNodes>
            0 -1 4 8.2532074302434921e-03</internalNodes>
          <leafValues>
            -5.9480232000350952e-01 6.7930620908737183e-01</leafValues></_>
        <_>
          <internalNodes>
            0 -1 12 -2.2909912467002869e-01</internalNodes>
          <leafValues>
            9.7042906284332275e-01 -4.2401188611984253e-01</leafValues></_></weakClassifiers></_>
    <!-- stage 4 -->
    <_>
      <maxWeakCount>5</maxWeakCount>
      <stageThreshold>-8.3672434091567993e-01</stageThreshold>
      <weakClassifiers>
        <_>
          <internalNodes>
            0 -1 3 -5.1270257681608200e-03</internalNodes>
          <leafValues>
            8.7301588058471680e-01 -5.3043478727340698e-01</leafValues></_>
        <_>
          <internalNodes>
            0 -1 41 1.0702589061111212e-03</internalNodes>
          <leafValues>
            -4.2173835635185242e-01 6.7163056135177612e-01</leafValues></_>
        <_>
          <internalNodes>
            0 -1 79 -2.1152015775442123e-02</internalNodes>
          <leafValues>
            6.5839177370071411e-01 -6.2577384710311890e-01</leafValues></_>
        <_>
          <internalNodes>
            0 -1 5 -2.8931237757205963e-03</internalNodes>
          <leafValues>
            -9.2094886302947998e-01 3.5929474234580994e-01</leafValues></_>
        <_>
          <internalNodes>
            0 -1 71 4.0934799471870065e-04</internalNodes>
          <leafValues>
            3.8192787766456604e-01 -7.6791197061538696e-01</leafValues></_></weakClassifiers></_>
    <!-- stage 5 -->
    <_>
      <maxWeakCount>5</maxWeakCount>
      <stageThreshold>-8.5246515274047852e-01</stageThreshold>
      <weakClassifiers>
        <_>
          <internalNodes>
            0 -1 90 -1.5111340326257050e-04</internalNodes>
          <leafValues>
            5.6179773807525635e-01 -8.0952382087707520e-01</leafValues></_>
        <_>
          <internalNodes>
            0 -1 33 4.6209674328565598e-03</internalNodes>
          <leafValues>
            -5.7513689994812012e-01 6.7720007896423340e-01</leafValues></_>
        <_>
          <internalNodes>
            0 -1 5 -2.7997563593089581e-03</internalNodes>
          <leafValues>
            -9.4197702407836914e-01 3.7665629386901855e-01</leafValues></_>
        <_>
          <internalNodes>
            0 -1 27 1.5395111404359341e-02</internalNodes>
          <leafValues>
            -4.5484471321105957e-01 8.1587648391723633e-01</leafValues></_>
        <_>
          <internalNodes>
            0 -1 45 -6.9581381976604462e-02</internalNodes>
          <leafValues>
            6.1038398742675781e-01 -5.1870465278625488e-01</leafValues></_></weakClassifiers></_>
    <!-- stage 6 -->
    <_>
      <maxWeakCount>6</maxWeakCount>
      <stageThreshold>-1.2688304185867310e+00</stageThreshold>
      <weakClassifiers>
        <_>
          <internalNodes>
            0 -1 70 -1.0693602263927460e-02</internalNodes>
          <leafValues>
            6.7741936445236206e-01 -6.5116280317306519e-01</leafValues></_>
        <_>
          <internalNodes>
            0 -1 72 -4.5034475624561310e-03</internalNodes>
          <leafValues>
            4.1037330031394958e-01 -8.3157891035079956e-01</leafValues></_>
        <_>
          <internalNodes>
            0 -1 42 -4.5008128508925438e-03</internalNodes>
          <leafValues>
            -6.7778080701828003e-01 5.2294987440109253e-01</leafValues></_>
        <_>
          <internalNodes>
            0 -1 19 -1.6124668717384338e-01</internalNodes>
          <leafValues>
            9.7228765487670898e-01 -4.1455379128456116e-01</leafValues></_>
        <_>
          <internalNodes>
            0 -1 39 4.8311846330761909e-03</internalNodes>
          <leafValues>
            -4.1531538963317871e-01 7.2440892457962036e-01</leafValues></_>
        <_>
          <internalNodes>
            0 -1 119 -2.4478364735841751e-02</internalNodes>
          <leafValues>
            4.7960907220840454e-01 -8.1820946931838989e-01</leafValues></_></weakClassifiers></_>
    <!-- stage 7 -->
    <_>
      <maxWeakCount>3</maxWeakCount>
      <stageThreshold>-4.4266131520271301e-01</stageThreshold>
      <weakClassifiers>
        <_>
          <internalNodes>
            0 -1 18 -2.2921014577150345e-02</internalNodes>
          <leafValues>
            8.9189189672470093e-01 -3.8461539149284363e-01</leafValues></_>
        <_>
          <internalNodes>
            0 -1 24 2.6337645249441266e-04</internalNodes>
          <leafValues>
            5.0808429718017578e-01 -9.8104190826416016e-01</leafValues></_>
        <_>
          <internalNodes>
            0 -1 2 -1.0813456773757935e-01</internalNodes>
          <leafValues>
            7.2013896703720093e-01 -5.6613022089004517e-01</leafValues></_></weakClassifiers></_>
    <!-- stage 8 -->
    <_>
      <maxWeakCount>5</maxWeakCount>
      <stageThreshold>4.9969326704740524e-02</stageThreshold>
      <weakClassifiers>
        <_>
          <internalNodes>
            0 -1 47 -3.1951782875694335e-04</internalNodes>
          <leafValues>
            7.3684209585189819e-01 -7.0786517858505249e-01</leafValues></_>
        <_>
          <internalNodes>
            0 -1 66 -6.4993677660822868e-03</internalNodes>
          <leafValues>
            -8.7454378604888916e-01 4.0946131944656372e-01</leafValues></_>
        <_>
          <internalNodes>
            0 -1 82 -2.5233277119696140e-04</internalNodes>
          <leafValues>
            3.2650518417358398e-01 -9.0029162168502808e-01</leafValues></_>
        <_>
          <internalNodes>
            0 -1 38 -3.7452724063768983e-04</internalNodes>
          <leafValues>
            4.6202239394187927e-01 -6.5159684419631958e-01</leafValues></_>
        <_>
          <internalNodes>
            0 -1 21 9.9801719188690186e-02</internalNodes>
          <leafValues>
            -4.4015440344810486e-01 9.7593045234680176e-01</leafValues></_></weakClassifiers></_>
    <!-- stage 9 -->
    <_>
      <maxWeakCount>3</maxWeakCount>
      <stageThreshold>-4.8587942123413086e-01</stageThreshold>
      <weakClassifiers>
        <_>
          <internalNodes>
            0 -1 87 -5.4358089982997626e-05</internalNodes>
          <leafValues>
            6.9426751136779785e-01 -7.1428573131561279e-01</leafValues></_>
        <_>
          <internalNodes>
            0 -1 59 -6.7507447674870491e-03</internalNodes>
          <leafValues>
            7.0239228010177612e-01 -6.5516102313995361e-01</leafValues></_>
        <_>
          <internalNodes>
            0 -1 97 2.1746522179455496e-05</internalNodes>
          <leafValues>
            -4.7398602962493896e-01 8.9034849405288696e-01</leafValues></_></weakClassifiers></_>
    <!-- stage 10 -->
    <_>
      <maxWeakCount>4</maxWeakCount>
      <stageThreshold>1.1071935296058655e-01</stageThreshold>
      <weakClassifiers>
        <_>
          <internalNodes>
            0 -1 58 -9.9786948412656784e-03</internalNodes>
          <leafValues>
            7.7941179275512695e-01 -5.4285717010498047e-01</leafValues></_>
        <_>
          <internalNodes>
            0 -1 42 -4.4406922534108162e-03</internalNodes>
          <leafValues>
            -6.8408346176147461e-01 7.5174814462661743e-01</leafValues></_>
        <_>
          <internalNodes>
            0 -1 50 -2.8324755840003490e-03</internalNodes>
          <leafValues>
            -9.3366873264312744e-01 3.9023789763450623e-01</leafValues></_>
        <_>
          <internalNodes>
            0 -1 13 -2.9181915521621704e-01</internalNodes>
          <leafValues>
            1. -3.7484687566757202e-01</leafValues></_></weakClassifiers></_>
    <!-- stage 11 -->
    <_>
      <maxWeakCount>5</maxWeakCount>
      <stageThreshold>-6.0367810726165771e-01</stageThreshold>
      <weakClassifiers>
        <_>
          <internalNodes>
            0 -1 46 -5.0561763346195221e-03</internalNodes>
          <leafValues>
            7.0588237047195435e-01 -4.4761905074119568e-01</leafValues></_>
        <_>
          <internalNodes>
            0 -1 68 3.3399686217308044e-02</internalNodes>
          <leafValues>
            3.5339346528053284e-01 -9.7578847408294678e-01</leafValues></_>
        <_>
          <internalNodes>
            0 -1 81 3.2138254027813673e-05</internalNodes>
          <leafValues>
            -4.2076537013053894e-01 7.0127397775650024e-01</leafValues></_>
        <_>
          <internalNodes>
            0 -1 53 -3.5701817978406325e-05</internalNodes>
          <leafValues>
            6.1113411188125610e-01 -4.6412593126296997e-01</leafValues></_>
        <_>
          <internalNodes>
            0 -1 48 -6.4602273050695658e-04</internalNodes>
          <leafValues>
            4.1911119222640991e-01 -6.9982129335403442e-01</leafValues></_></weakClassifiers></_>
    <!-- stage 12 -->
    <_>
      <maxWeakCount>5</maxWeakCount>
      <stageThreshold>-5.1515865325927734e-01</stageThreshold>
      <weakClassifiers>
        <_>
          <internalNodes>
            0 -1 34 -3.0298884958028793e-03</internalNodes>
          <leafValues>
            5.1086956262588501e-01 -7.8947371244430542e-01</leafValues></_>
        <_>
          <internalNodes>
            0 -1 32 7.6482206350192428e-04</internalNodes>
          <leafValues>
            -3.9225748181343079e-01 8.1867563724517822e-01</leafValues></_>
        <_>
          <internalNodes>
            0 -1 120 -4.0964144864119589e-04</internalNodes>
          <leafValues>
            7.6847851276397705e-01 -3.6925292015075684e-01</leafValues></_>
        <_>
          <internalNodes>
            0 -1 107 3.8760458119213581e-03</internalNodes>
          <leafValues>
            3.4130960702896118e-01 -1.</leafValues></_>
        <_>
          <internalNodes>
            0 -1 7 -9.1029908508062363e-03</internalNodes>
          <leafValues>
            6.9451588392257690e-01 -5.0628423690795898e-01</leafValues></_></weakClassifiers></_>
    <!-- stage 13 -->
    <_>
      <maxWeakCount>5</maxWeakCount>
      <stageThreshold>-6.3900375366210938e-01</stageThreshold>
      <weakClassifiers>
        <_>
          <internalNodes>
            0 -1 15 -2.5611709803342819e-02</internalNodes>
          <leafValues>
            7.0992368459701538e-01 -4.0000000596046448e-01</leafValues></_>
        <_>
          <internalNodes>
            0 -1 102 -7.1436390280723572e-03</internalNodes>
          <leafValues>
            7.1962195634841919e-01 -3.4742024540901184e-01</leafValues></_>
        <_>
          <internalNodes>
            0 -1 105 1.9394567934796214e-03</internalNodes>
          <leafValues>
            3.3598014712333679e-01 -8.9896845817565918e-01</leafValues></_>
        <_>
          <internalNodes>
            0 -1 112 1.3206741641624831e-05</internalNodes>
          <leafValues>
            2.7234727144241333e-01 -8.0245858430862427e-01</leafValues></_>
        <_>
          <internalNodes>
            0 -1 16 2.1133251488208771e-02</internalNodes>
          <leafValues>
            -4.7576087713241577e-01 5.7489490509033203e-01</leafValues></_></weakClassifiers></_>
    <!-- stage 14 -->
    <_>
      <maxWeakCount>5</maxWeakCount>
      <stageThreshold>-5.0352615118026733e-01</stageThreshold>
      <weakClassifiers>
        <_>
          <internalNodes>
            0 -1 1 2.2055778652429581e-02</internalNodes>
          <leafValues>
            -4.1509434580802917e-01 6.8888890743255615e-01</leafValues></_>
        <_>
          <internalNodes>
            0 -1 118 -2.3698012810200453e-03</internalNodes>
          <leafValues>
            5.0097173452377319e-01 -5.4286545515060425e-01</leafValues></_>
        <_>
          <internalNodes>
            0 -1 100 1.9218146917410195e-04</internalNodes>
          <leafValues>
            3.3412533998489380e-01 -9.1746014356613159e-01</leafValues></_>
        <_>
          <internalNodes>
            0 -1 26 -2.3156389594078064e-02</internalNodes>
          <leafValues>
            9.3388867378234863e-01 -3.3906248211860657e-01</leafValues></_>
        <_>
          <internalNodes>
            0 -1 28 4.1744867339730263e-03</internalNodes>
          <leafValues>
            -6.0583209991455078e-01 5.0381177663803101e-01</leafValues></_></weakClassifiers></_>
    <!-- stage 15 -->
    <_>
      <maxWeakCount>5</maxWeakCount>
      <stageThreshold>-4.5131424069404602e-01</stageThreshold>
      <weakClassifiers>
        <_>
          <internalNodes>
            0 -1 20 -3.0640386044979095e-02</internalNodes>
          <leafValues>
            8.0952382087707520e-01 -2.6470589637756348e-01</leafValues></_>
        <_>
          <internalNodes>
            0 -1 111 -3.8591518998146057e-02</internalNodes>
          <leafValues>
            6.7718458175659180e-01 -3.5342237353324890e-01</leafValues></_>
        <_>
          <internalNodes>
            0 -1 17 -1.9992426678072661e-04</internalNodes>
          <leafValues>
            -7.4748831987380981e-01 3.3567237854003906e-01</leafValues></_>
        <_>
          <internalNodes>
            0 -1 108 2.3172098735813051e-05</internalNodes>
          <leafValues>
            -4.9264764785766602e-01 4.6877074241638184e-01</leafValues></_>
        <_>
          <internalNodes>
            0 -1 76 2.6610461063683033e-03</internalNodes>
          <leafValues>
            3.7634301185607910e-01 -8.8685250282287598e-01</leafValues></_></weakClassifiers></_>
    <!-- stage 16 -->
    <_>
      <maxWeakCount>7</maxWeakCount>
      <stageThreshold>-3.9460182189941406e-01</stageThreshold>
      <weakClassifiers>
        <_>
          <internalNodes>
            0 -1 55 -3.3971868455410004e-02</internalNodes>
          <leafValues>
            5.8749997615814209e-01 -5.5555558204650879e-01</leafValues></_>
        <_>
          <internalNodes>
            0 -1 101 7.6814911153633147e-05</internalNodes>
          <leafValues>
            -3.8087403774261475e-01 6.8213105201721191e-01</leafValues></_>
        <_>
          <internalNodes>
            0 -1 73 -7.9201126936823130e-05</internalNodes>
          <leafValues>
            -6.4071577787399292e-01 3.9702552556991577e-01</leafValues></_>
        <_>
          <internalNodes>
            0 -1 65 -7.4190035462379456e-02</internalNodes>
          <leafValues>
            7.6166355609893799e-01 -4.3844246864318848e-01</leafValues></_>
        <_>
          <internalNodes>
            0 -1 40 1.1261733248829842e-02</internalNodes>
          <leafValues>
            -6.0582476854324341e-01 4.1170361638069153e-01</leafValues></_>
        <_>
          <internalNodes>
            0 -1 117 -2.8409264050424099e-03</internalNodes>
          <leafValues>
            8.1699246168136597e-01 -3.1820631027221680e-01</leafValues></_>
        <_>
          <internalNodes>
            0 -1 91 -1.7560267820954323e-02</internalNodes>
          <leafValues>
            4.8974740505218506e-01 -7.5326162576675415e-01</leafValues></_></weakClassifiers></_>
    <!-- stage 17 -->
    <_>
      <maxWeakCount>4</maxWeakCount>
      <stageThreshold>-4.1181683540344238e-01</stageThreshold>
      <weakClassifiers>
        <_>
          <internalNodes>
            0 -1 43 -7.4960957281291485e-03</internalNodes>
          <leafValues>
            -1. 4.4278606772422791e-01</leafValues></_>
        <_>
          <internalNodes>
            0 -1 57 -1.2763930717483163e-03</internalNodes>
          <leafValues>
            4.5967721939086914e-01 -6.7442733049392700e-01</leafValues></_>
        <_>
          <internalNodes>
            0 -1 114 -1.0095600038766861e-02</internalNodes>
          <leafValues>
            6.4854669570922852e-01 -4.8412367701530457e-01</leafValues></_>
        <_>
          <internalNodes>
            0 -1 83 2.4205632507801056e-04</internalNodes>
          <leafValues>
            3.0394807457923889e-01 -8.2973152399063110e-01</leafValues></_></weakClassifiers></_>
    <!-- stage 18 -->
    <_>
      <maxWeakCount>5</maxWeakCount>
      <stageThreshold>-3.2864251732826233e-01</stageThreshold>
      <weakClassifiers>
        <_>
          <internalNodes>
            0 -1 94 -8.7856613099575043e-03</internalNodes>
          <leafValues>
            5.6213015317916870e-01 -6.3888889551162720e-01</leafValues></_>
        <_>
          <internalNodes>
            0 -1 77 4.7282403102144599e-05</internalNodes>
          <leafValues>
            -4.0832901000976563e-01 7.2463488578796387e-01</leafValues></_>
        <_>
          <internalNodes>
            0 -1 118 -2.9369872063398361e-03</internalNodes>
          <leafValues>
            6.0986149311065674e-01 -4.6774485707283020e-01</leafValues></_>
        <_>
          <internalNodes>
            0 -1 11 -2.2800263832323253e-04</internalNodes>
          <leafValues>
            -4.2525383830070496e-01 6.8499726057052612e-01</leafValues></_>
        <_>
          <internalNodes>
            0 -1 0 2.4264890234917402e-03</internalNodes>
          <leafValues>
            -5.5520129203796387e-01 5.0132298469543457e-01</leafValues></_></weakClassifiers></_>
    <!-- stage 19 -->
    <_>
      <maxWeakCount>6</maxWeakCount>
      <stageThreshold>-2.6971614360809326e-01</stageThreshold>
      <weakClassifiers>
        <_>
          <internalNodes>
            0 -1 14 -4.1783866472542286e-03</internalNodes>
          <leafValues>
            6.4963501691818237e-01 -3.8461539149284363e-01</leafValues></_>
        <_>
          <internalNodes>
            0 -1 30 -5.6261487770825624e-04</internalNodes>
          <leafValues>
            4.9610897898674011e-01 -5.5770659446716309e-01</leafValues></_>
        <_>
          <internalNodes>
            0 -1 36 6.0066755395382643e-04</internalNodes>
          <leafValues>
            2.4563145637512207e-01 -9.4944673776626587e-01</leafValues></_>
        <_>
          <internalNodes>
            0 -1 106 -7.8197577968239784e-03</internalNodes>
          <leafValues>
            6.4212143421173096e-01 -3.8738343119621277e-01</leafValues></_>
        <_>
          <internalNodes>
            0 -1 96 1.8658791668713093e-04</internalNodes>
          <leafValues>
            -4.2829328775405884e-01 6.1332160234451294e-01</leafValues></_>
        <_>
          <internalNodes>
            0 -1 109 -1.6142379026859999e-03</internalNodes>
          <leafValues>
            -8.5277938842773438e-01 3.8977995514869690e-01</leafValues></_></weakClassifiers></_>
    <!-- stage 20 -->
    <_>
      <maxWeakCount>5</maxWeakCount>
      <stageThreshold>-2.5366809964179993e-01</stageThreshold>
      <weakClassifiers>
        <_>
          <internalNodes>
            0 -1 110 4.2605091584846377e-04</internalNodes>
          <leafValues>
            4.8421052098274231e-01 -8.4313726425170898e-01</leafValues></_>
        <_>
          <internalNodes>
            0 -1 85 -9.1696027666330338e-03</internalNodes>
          <leafValues>
            -8.8451123237609863e-01 3.0595651268959045e-01</leafValues></_>
        <_>
          <internalNodes>
            0 -1 49 -1.1383255943655968e-02</internalNodes>
          <leafValues>
            -8.2028084993362427e-01 3.4333014488220215e-01</leafValues></_>
        <_>
          <internalNodes>
            0 -1 78 -7.8013259917497635e-04</internalNodes>
          <leafValues>
            5.8726418018341064e-01 -4.5619413256645203e-01</leafValues></_>
        <_>
          <internalNodes>
            0 -1 9 -1.0202586650848389e-02</internalNodes>
          <leafValues>
            -6.1817193031311035e-01 3.9637663960456848e-01</leafValues></_></weakClassifiers></_>
    <!-- stage 21 -->
    <_>
      <maxWeakCount>5</maxWeakCount>
      <stageThreshold>-8.3011972904205322e-01</stageThreshold>
      <weakClassifiers>
        <_>
          <internalNodes>
            0 -1 61 -9.9502783268690109e-04</internalNodes>
          <leafValues>
            6.0256409645080566e-01 -5.2941179275512695e-01</leafValues></_>
        <_>
          <internalNodes>
            0 -1 113 1.4197747805155814e-04</internalNodes>
          <leafValues>
            -3.6039078235626221e-01 8.3667117357254028e-01</leafValues></_>
        <_>
          <internalNodes>
            0 -1 6 -1.8879710696637630e-03</internalNodes>
          <leafValues>
            -5.4602402448654175e-01 5.0347167253494263e-01</leafValues></_>
        <_>
          <internalNodes>
            0 -1 98 1.4264893252402544e-03</internalNodes>
          <leafValues>
            2.9829698801040649e-01 -9.1844314336776733e-01</leafValues></_>
        <_>
          <internalNodes>
            0 -1 10 1.4419942453969270e-04</internalNodes>
          <leafValues>
            3.0740985274314880e-01 -8.5889494419097900e-01</leafValues></_></weakClassifiers></_>
    <!-- stage 22 -->
    <_>
      <maxWeakCount>5</maxWeakCount>
      <stageThreshold>-1.3705681078135967e-02</stageThreshold>
      <weakClassifiers>
        <_>
          <internalNodes>
            0 -1 60 -6.5425236243754625e-04</internalNodes>
          <leafValues>
            5.1724135875701904e-01 -6.1194032430648804e-01</leafValues></_>
        <_>
          <internalNodes>
            0 -1 80 -1.1896615615114570e-03</internalNodes>
          <leafValues>
            -7.9105842113494873e-01 3.3077156543731689e-01</leafValues></_>
        <_>
          <internalNodes>
            0 -1 95 -6.9539663381874561e-03</internalNodes>
          <leafValues>
            -5.9724611043930054e-01 5.7694560289382935e-01</leafValues></_>
        <_>
          <internalNodes>
            0 -1 22 1.5339022502303123e-02</internalNodes>
          <leafValues>
            2.6778906583786011e-01 -9.3602162599563599e-01</leafValues></_>
        <_>
          <internalNodes>
            0 -1 93 -4.2476924136281013e-04</internalNodes>
          <leafValues>
            5.9692013263702393e-01 -4.6950930356979370e-01</leafValues></_></weakClassifiers></_>
    <!-- stage 23 -->
    <_>
      <maxWeakCount>6</maxWeakCount>
      <stageThreshold>-4.2301720380783081e-01</stageThreshold>
      <weakClassifiers>
        <_>
          <internalNodes>
            0 -1 37 -9.9571049213409424e-04</internalNodes>
          <leafValues>
            5.1445084810256958e-01 -5.8823531866073608e-01</leafValues></_>
        <_>
          <internalNodes>
            0 -1 67 -5.9124082326889038e-03</internalNodes>
          <leafValues>
            -8.1777316331863403e-01 4.1217219829559326e-01</leafValues></_>
        <_>
          <internalNodes>
            0 -1 89 -1.9572004675865173e-03</internalNodes>
          <leafValues>
            4.5041179656982422e-01 -6.7362302541732788e-01</leafValues></_>
        <_>
          <internalNodes>
            0 -1 44 -6.0520350933074951e-02</internalNodes>
          <leafValues>
            6.4829409122467041e-01 -4.7618839144706726e-01</leafValues></_>
        <_>
          <internalNodes>
            0 -1 8 -1.6672103665769100e-03</internalNodes>
          <leafValues>
            -6.7293286323547363e-01 4.5088723301887512e-01</leafValues></_>
        <_>
          <internalNodes>
            0 -1 121 -1.7475162167102098e-04</internalNodes>
          <leafValues>
            -5.4480558633804321e-01 6.1147314310073853e-01</leafValues></_></weakClassifiers></_>
    <!-- stage 24 -->
    <_>
      <maxWeakCount>4</maxWeakCount>
      <stageThreshold>-3.9256174117326736e-02</stageThreshold>
      <weakClassifiers>
        <_>
          <internalNodes>
            0 -1 104 -3.6426376027520746e-05</internalNodes>
          <leafValues>
            7.8333336114883423e-01 -3.7190082669258118e-01</leafValues></_>
        <_>
          <internalNodes>
            0 -1 86 7.9923821613192558e-03</internalNodes>
          <leafValues>
            7.6242500543594360e-01 -4.0230643749237061e-01</leafValues></_>
        <_>
          <internalNodes>
            0 -1 84 -4.0295937651535496e-05</internalNodes>
          <leafValues>
            4.4532704353332520e-01 -7.9881024360656738e-01</leafValues></_>
        <_>
          <internalNodes>
            0 -1 99 -3.6024668952450156e-04</internalNodes>
          <leafValues>
            -8.3258897066116333e-01 3.7852719426155090e-01</leafValues></_></weakClassifiers></_>
    <!-- stage 25 -->
    <_>
      <maxWeakCount>6</maxWeakCount>
      <stageThreshold>-8.5692709684371948e-01</stageThreshold>
      <weakClassifiers>
        <_>
          <internalNodes>
            0 -1 62 -1.7851490993052721e-03</internalNodes>
          <leafValues>
            6.5986394882202148e-01 -5.1063829660415649e-01</leafValues></_>
        <_>
          <internalNodes>
            0 -1 31 4.2951469367835671e-05</internalNodes>
          <leafValues>
            -3.3877268433570862e-01 8.6607831716537476e-01</leafValues></_>
        <_>
          <internalNodes>
            0 -1 23 -4.2489305138587952e-02</internalNodes>
          <leafValues>
            -8.4908753633499146e-01 4.0618366003036499e-01</leafValues></_>
        <_>
          <internalNodes>
            0 -1 103 -1.5803632777533494e-05</internalNodes>
          <leafValues>
            -5.9437823295593262e-01 6.6024094820022583e-01</leafValues></_>
        <_>
          <internalNodes>
            0 -1 29 -2.3998685355763882e-04</internalNodes>
          <leafValues>
            8.3635455369949341e-01 -4.5393663644790649e-01</leafValues></_>
        <_>
          <internalNodes>
            0 -1 51 4.2011786717921495e-04</internalNodes>
          <leafValues>
            6.6335731744766235e-01 -6.2000405788421631e-01</leafValues></_></weakClassifiers></_>
    <!-- stage 26 -->
    <_>
      <maxWeakCount>4</maxWeakCount>
      <stageThreshold>-2.2790221869945526e-01</stageThreshold>
      <weakClassifiers>
        <_>
          <internalNodes>
            0 -1 115 -1.3992380991112441e-04</internalNodes>
          <leafValues>
            -7.6119405031204224e-01 5.7471263408660889e-01</leafValues></_>
        <_>
          <internalNodes>
            0 -1 92 3.8090194575488567e-03</internalNodes>
          <leafValues>
            4.8395872116088867e-01 -7.3933964967727661e-01</leafValues></_>
        <_>
          <internalNodes>
            0 -1 74 2.0036165369674563e-04</internalNodes>
          <leafValues>
            6.2588745355606079e-01 -5.8790403604507446e-01</leafValues></_>
        <_>
          <internalNodes>
            0 -1 88 1.6586193814873695e-03</internalNodes>
          <leafValues>
            -5.7655441761016846e-01 6.4923608303070068e-01</leafValues></_></weakClassifiers></_></stages>
  <features>
    <_>
      <rects>
        <_>
          0 0 2 24 -1.</_>
        <_>
          0 0 1 12 2.</_>
        <_>
          1 12 1 12 2.</_></rects>
      <tilted>0</tilted></_>
    <_>
      <rects>
        <_>
          0 0 8 22 -1.</_>
        <_>
          0 0 4 11 2.</_>
        <_>
          4 11 4 11 2.</_></rects>
      <tilted>0</tilted></_>
    <_>
      <rects>
        <_>
          0 0 6 20 -1.</_>
        <_>
          0 10 6 10 2.</_></rects>
      <tilted>0</tilted></_>
    <_>
      <rects>
        <_>
          0 0 23 3 -1.</_>
        <_>
          0 1 23 1 3.</_></rects>
      <tilted>0</tilted></_>
    <_>
      <rects>
        <_>
          0 2 4 20 -1.</_>
        <_>
          0 2 2 10 2.</_>
        <_>
          2 12 2 10 2.</_></rects>
      <tilted>0</tilted></_>
    <_>
      <rects>
        <_>
          0 2 23 2 -1.</_>
        <_>
          0 3 23 1 2.</_></rects>
      <tilted>0</tilted></_>
    <_>
      <rects>
        <_>
          0 3 23 6 -1.</_>
        <_>
          0 5 23 2 3.</_></rects>
      <tilted>0</tilted></_>
    <_>
      <rects>
        <_>
          0 4 18 6 -1.</_>
        <_>
          0 4 9 3 2.</_>
        <_>
          9 7 9 3 2.</_></rects>
      <tilted>0</tilted></_>
    <_>
      <rects>
        <_>
          0 5 22 9 -1.</_>
        <_>
          0 8 22 3 3.</_></rects>
      <tilted>0</tilted></_>
    <_>
      <rects>
        <_>
          0 5 23 4 -1.</_>
        <_>
          0 7 23 2 2.</_></rects>
      <tilted>0</tilted></_>
    <_>
      <rects>
        <_>
          0 6 2 6 -1.</_>
        <_>
          0 6 1 3 2.</_>
        <_>
          1 9 1 3 2.</_></rects>
      <tilted>0</tilted></_>
    <_>
      <rects>
        <_>
          0 6 2 10 -1.</_>
        <_>
          0 11 2 5 2.</_></rects>
      <tilted>0</tilted></_>
    <_>
      <rects>
        <_>
          0 6 24 8 -1.</_>
        <_>
          8 6 8 8 3.</_></rects>
      <tilted>0</tilted></_>
    <_>
      <rects>
        <_>
          0 6 24 9 -1.</_>
        <_>
          8 6 8 9 3.</_></rects>
      <tilted>0</tilted></_>
    <_>
      <rects>
        <_>
          0 7 14 1 -1.</_>
        <_>
          7 7 7 1 2.</_></rects>
      <tilted>0</tilted></_>
    <_>
      <rects>
        <_>
          0 7 24 2 -1.</_>
        <_>
          8 7 8 2 3.</_></rects>
      <tilted>0</tilted></_>
    <_>
      <rects>
        <_>
          0 8 8 12 -1.</_>
        <_>
          0 8 4 6 2.</_>
        <_>
          4 14 4 6 2.</_></rects>
      <tilted>0</tilted></_>
    <_>
      <rects>
        <_>
          0 9 2 8 -1.</_>
        <_>
          1 9 1 8 2.</_></rects>
      <tilted>0</tilted></_>
    <_>
      <rects>
        <_>
          0 9 24 1 -1.</_>
        <_>
          8 9 8 1 3.</_></rects>
      <tilted>0</tilted></_>
    <_>
      <rects>
        <_>
          0 9 24 5 -1.</_>
        <_>
          8 9 8 5 3.</_></rects>
      <tilted>0</tilted></_>
    <_>
      <rects>
        <_>
          0 10 24 1 -1.</_>
        <_>
          8 10 8 1 3.</_></rects>
      <tilted>0</tilted></_>
    <_>
      <rects>
        <_>
          0 11 24 5 -1.</_>
        <_>
          8 11 8 5 3.</_></rects>
      <tilted>0</tilted></_>
    <_>
      <rects>
        <_>
          0 11 24 1 -1.</_>
        <_>
          12 11 12 1 2.</_></rects>
      <tilted>0</tilted></_>
    <_>
      <rects>
        <_>
          0 11 24 4 -1.</_>
        <_>
          12 11 12 4 2.</_></rects>
      <tilted>0</tilted></_>
    <_>
      <rects>
        <_>
          0 14 1 4 -1.</_>
        <_>
          0 16 1 2 2.</_></rects>
      <tilted>0</tilted></_>
    <_>
      <rects>
        <_>
          0 14 2 6 -1.</_>
        <_>
          1 14 1 6 2.</_></rects>
      <tilted>0</tilted></_>
    <_>
      <rects>
        <_>
          0 14 14 2 -1.</_>
        <_>
          7 14 7 2 2.</_></rects>
      <tilted>0</tilted></_>
    <_>
      <rects>
        <_>
          0 15 15 2 -1.</_>
        <_>
          5 15 5 2 3.</_></rects>
      <tilted>0</tilted></_>
    <_>
      <rects>
        <_>
          0 15 14 1 -1.</_>
        <_>
          7 15 7 1 2.</_></rects>
      <tilted>0</tilted></_>
    <_>
      <rects>
        <_>
          0 17 16 2 -1.</_>
        <_>
          0 17 8 1 2.</_>
        <_>
          8 18 8 1 2.</_></rects>
      <tilted>0</tilted></_>
    <_>
      <rects>
        <_>
          0 18 12 6 -1.</_>
        <_>
          0 18 6 3 2.</_>
        <_>
          6 21 6 3 2.</_></rects>
      <tilted>0</tilted></_>
    <_>
      <rects>
        <_>
          0 19 24 4 -1.</_>
        <_>
          0 21 24 2 2.</_></rects>
      <tilted>0</tilted></_>
    <_>
      <rects>
        <_>
          0 21 2 2 -1.</_>
        <_>
          1 21 1 2 2.</_></rects>
      <tilted>0</tilted></_>
    <_>
      <rects>
        <_>
          0 21 24 3 -1.</_>
        <_>
          0 22 24 1 3.</_></rects>
      <tilted>0</tilted></_>
    <_>
      <rects>
        <_>
          0 22 23 2 -1.</_>
        <_>
          0 23 23 1 2.</_></rects>
      <tilted>0</tilted></_>
    <_>
      <rects>
        <_>
          1 0 2 24 -1.</_>
        <_>
          1 12 2 12 2.</_></rects>
      <tilted>0</tilted></_>
    <_>
      <rects>
        <_>
          1 1 4 2 -1.</_>
        <_>
          3 1 2 2 2.</_></rects>
      <tilted>0</tilted></_>
    <_>
      <rects>
        <_>
          1 1 19 2 -1.</_>
        <_>
          1 2 19 1 2.</_></rects>
      <tilted>0</tilted></_>
    <_>
      <rects>
        <_>
          1 6 20 4 -1.</_>
        <_>
          1 8 20 2 2.</_></rects>
      <tilted>0</tilted></_>
    <_>
      <rects>
        <_>
          1 14 10 1 -1.</_>
        <_>
          6 14 5 1 2.</_></rects>
      <tilted>0</tilted></_>
    <_>
      <rects>
        <_>
          1 15 21 9 -1.</_>
        <_>
          1 18 21 3 3.</_></rects>
      <tilted>0</tilted></_>
    <_>
      <rects>
        <_>
          1 16 12 1 -1.</_>
        <_>
          7 16 6 1 2.</_></rects>
      <tilted>0</tilted></_>
    <_>
      <rects>
        <_>
          1 18 23 4 -1.</_>
        <_>
          1 20 23 2 2.</_></rects>
      <tilted>0</tilted></_>
    <_>
      <rects>
        <_>
          1 23 14 1 -1.</_>
        <_>
          8 23 7 1 2.</_></rects>
      <tilted>0</tilted></_>
    <_>
      <rects>
        <_>
          2 0 4 20 -1.</_>
        <_>
          2 10 4 10 2.</_></rects>
      <tilted>0</tilted></_>
    <_>
      <rects>
        <_>
          2 0 5 22 -1.</_>
        <_>
          2 11 5 11 2.</_></rects>
      <tilted>0</tilted></_>
    <_>
      <rects>
        <_>
          2 0 20 3 -1.</_>
        <_>
          2 1 20 1 3.</_></rects>
      <tilted>0</tilted></_>
    <_>
      <rects>
        <_>
          2 2 18 2 -1.</_>
        <_>
          2 3 18 1 2.</_></rects>
      <tilted>0</tilted></_>
    <_>
      <rects>
        <_>
          2 2 20 2 -1.</_>
        <_>
          2 3 20 1 2.</_></rects>
      <tilted>0</tilted></_>
    <_>
      <rects>
        <_>
          2 2 20 4 -1.</_>
        <_>
          2 4 20 2 2.</_></rects>
      <tilted>0</tilted></_>
    <_>
      <rects>
        <_>
          2 2 21 2 -1.</_>
        <_>
          2 3 21 1 2.</_></rects>
      <tilted>0</tilted></_>
    <_>
      <rects>
        <_>
          2 2 21 12 -1.</_>
        <_>
          2 6 21 4 3.</_></rects>
      <tilted>0</tilted></_>
    <_>
      <rects>
        <_>
          2 14 12 4 -1.</_>
        <_>
          2 16 12 2 2.</_></rects>
      <tilted>0</tilted></_>
    <_>
      <rects>
        <_>
          2 17 12 2 -1.</_>
        <_>
          2 17 6 1 2.</_>
        <_>
          8 18 6 1 2.</_></rects>
      <tilted>0</tilted></_>
    <_>
      <rects>
        <_>
          2 19 8 4 -1.</_>
        <_>
          6 19 4 4 2.</_></rects>
      <tilted>0</tilted></_>
    <_>
      <rects>
        <_>
          3 0 14 8 -1.</_>
        <_>
          3 4 14 4 2.</_></rects>
      <tilted>0</tilted></_>
    <_>
      <rects>
        <_>
          3 0 15 10 -1.</_>
        <_>
          3 5 15 5 2.</_></rects>
      <tilted>0</tilted></_>
    <_>
      <rects>
        <_>
          3 0 17 3 -1.</_>
        <_>
          3 1 17 1 3.</_></rects>
      <tilted>0</tilted></_>
    <_>
      <rects>
        <_>
          3 0 19 9 -1.</_>
        <_>
          3 3 19 3 3.</_></rects>
      <tilted>0</tilted></_>
    <_>
      <rects>
        <_>
          3 0 20 6 -1.</_>
        <_>
          3 2 20 2 3.</_></rects>
      <tilted>0</tilted></_>
    <_>
      <rects>
        <_>
          3 2 19 2 -1.</_>
        <_>
          3 3 19 1 2.</_></rects>
      <tilted>0</tilted></_>
    <_>
      <rects>
        <_>
          3 3 18 2 -1.</_>
        <_>
          3 4 18 1 2.</_></rects>
      <tilted>0</tilted></_>
    <_>
      <rects>
        <_>
          3 4 17 4 -1.</_>
        <_>
          3 6 17 2 2.</_></rects>
      <tilted>0</tilted></_>
    <_>
      <rects>
        <_>
          4 0 16 2 -1.</_>
        <_>
          4 1 16 1 2.</_></rects>
      <tilted>0</tilted></_>
    <_>
      <rects>
        <_>
          4 0 17 2 -1.</_>
        <_>
          4 1 17 1 2.</_></rects>
      <tilted>0</tilted></_>
    <_>
      <rects>
        <_>
          4 1 5 18 -1.</_>
        <_>
          4 10 5 9 2.</_></rects>
      <tilted>0</tilted></_>
    <_>
      <rects>
        <_>
          4 1 10 6 -1.</_>
        <_>
          4 3 10 2 3.</_></rects>
      <tilted>0</tilted></_>
    <_>
      <rects>
        <_>
          4 1 16 6 -1.</_>
        <_>
          4 3 16 2 3.</_></rects>
      <tilted>0</tilted></_>
    <_>
      <rects>
        <_>
          4 7 16 10 -1.</_>
        <_>
          4 12 16 5 2.</_></rects>
      <tilted>0</tilted></_>
    <_>
      <rects>
        <_>
          4 18 16 6 -1.</_>
        <_>
          4 21 16 3 2.</_></rects>
      <tilted>0</tilted></_>
    <_>
      <rects>
        <_>
          5 0 14 4 -1.</_>
        <_>
          5 2 14 2 2.</_></rects>
      <tilted>0</tilted></_>
    <_>
      <rects>
        <_>
          5 16 6 5 -1.</_>
        <_>
          7 16 2 5 3.</_></rects>
      <tilted>0</tilted></_>
    <_>
      <rects>
        <_>
          5 18 16 6 -1.</_>
        <_>
          5 21 16 3 2.</_></rects>
      <tilted>0</tilted></_>
    <_>
      <rects>
        <_>
          6 2 1 6 -1.</_>
        <_>
          6 5 1 3 2.</_></rects>
      <tilted>0</tilted></_>
    <_>
      <rects>
        <_>
          6 12 4 10 -1.</_>
        <_>
          8 12 2 10 2.</_></rects>
      <tilted>0</tilted></_>
    <_>
      <rects>
        <_>
          6 12 10 12 -1.</_>
        <_>
          6 18 10 6 2.</_></rects>
      <tilted>0</tilted></_>
    <_>
      <rects>
        <_>
          6 15 4 6 -1.</_>
        <_>
          6 18 4 3 2.</_></rects>
      <tilted>0</tilted></_>
    <_>
      <rects>
        <_>
          6 16 4 4 -1.</_>
        <_>
          6 18 4 2 2.</_></rects>
      <tilted>0</tilted></_>
    <_>
      <rects>
        <_>
          6 19 10 2 -1.</_>
        <_>
          6 20 10 1 2.</_></rects>
      <tilted>0</tilted></_>
    <_>
      <rects>
        <_>
          7 0 13 6 -1.</_>
        <_>
          7 3 13 3 2.</_></rects>
      <tilted>0</tilted></_>
    <_>
      <rects>
        <_>
          7 8 3 15 -1.</_>
        <_>
          8 8 1 15 3.</_></rects>
      <tilted>0</tilted></_>
    <_>
      <rects>
        <_>
          7 13 2 6 -1.</_>
        <_>
          7 16 2 3 2.</_></rects>
      <tilted>0</tilted></_>
    <_>
      <rects>
        <_>
          7 18 7 6 -1.</_>
        <_>
          7 21 7 3 2.</_></rects>
      <tilted>0</tilted></_>
    <_>
      <rects>
        <_>
          8 0 3 8 -1.</_>
        <_>
          9 0 1 8 3.</_></rects>
      <tilted>0</tilted></_>
    <_>
      <rects>
        <_>
          8 1 16 2 -1.</_>
        <_>
          8 2 16 1 2.</_></rects>
      <tilted>0</tilted></_>
    <_>
      <rects>
        <_>
          8 8 8 15 -1.</_>
        <_>
          8 13 8 5 3.</_></rects>
      <tilted>0</tilted></_>
    <_>
      <rects>
        <_>
          8 9 3 15 -1.</_>
        <_>
          8 14 3 5 3.</_></rects>
      <tilted>0</tilted></_>
    <_>
      <rects>
        <_>
          8 18 1 6 -1.</_>
        <_>
          8 21 1 3 2.</_></rects>
      <tilted>0</tilted></_>
    <_>
      <rects>
        <_>
          8 19 16 4 -1.</_>
        <_>
          8 19 8 2 2.</_>
        <_>
          16 21 8 2 2.</_></rects>
      <tilted>0</tilted></_>
    <_>
      <rects>
        <_>
          8 22 11 2 -1.</_>
        <_>
          8 23 11 1 2.</_></rects>
      <tilted>0</tilted></_>
    <_>
      <rects>
        <_>
          9 0 14 12 -1.</_>
        <_>
          9 6 14 6 2.</_></rects>
      <tilted>0</tilted></_>
    <_>
      <rects>
        <_>
          9 9 15 14 -1.</_>
        <_>
          9 16 15 7 2.</_></rects>
      <tilted>0</tilted></_>
    <_>
      <rects>
        <_>
          9 17 10 6 -1.</_>
        <_>
          9 19 10 2 3.</_></rects>
      <tilted>0</tilted></_>
    <_>
      <rects>
        <_>
          9 19 12 2 -1.</_>
        <_>
          9 20 12 1 2.</_></rects>
      <tilted>0</tilted></_>
    <_>
      <rects>
        <_>
          10 0 7 21 -1.</_>
        <_>
          10 7 7 7 3.</_></rects>
      <tilted>0</tilted></_>
    <_>
      <rects>
        <_>
          10 2 13 15 -1.</_>
        <_>
          10 7 13 5 3.</_></rects>
      <tilted>0</tilted></_>
    <_>
      <rects>
        <_>
          10 14 4 8 -1.</_>
        <_>
          10 18 4 4 2.</_></rects>
      <tilted>0</tilted></_>
    <_>
      <rects>
        <_>
          11 10 1 6 -1.</_>
        <_>
          11 13 1 3 2.</_></rects>
      <tilted>0</tilted></_>
    <_>
      <rects>
        <_>
          11 11 3 4 -1.</_>
        <_>
          11 13 3 2 2.</_></rects>
      <tilted>0</tilted></_>
    <_>
      <rects>
        <_>
          12 0 3 14 -1.</_>
        <_>
          13 0 1 14 3.</_></rects>
      <tilted>0</tilted></_>
    <_>
      <rects>
        <_>
          12 11 2 7 -1.</_>
        <_>
          13 11 1 7 2.</_></rects>
      <tilted>0</tilted></_>
    <_>
      <rects>
        <_>
          12 14 1 8 -1.</_>
        <_>
          12 18 1 4 2.</_></rects>
      <tilted>0</tilted></_>
    <_>
      <rects>
        <_>
          12 17 12 2 -1.</_>
        <_>
          18 17 6 2 2.</_></rects>
      <tilted>0</tilted></_>
    <_>
      <rects>
        <_>
          14 1 2 4 -1.</_>
        <_>
          14 3 2 2 2.</_></rects>
      <tilted>0</tilted></_>
    <_>
      <rects>
        <_>
          14 20 10 1 -1.</_>
        <_>
          19 20 5 1 2.</_></rects>
      <tilted>0</tilted></_>
    <_>
      <rects>
        <_>
          15 0 3 15 -1.</_>
        <_>
          16 0 1 15 3.</_></rects>
      <tilted>0</tilted></_>
    <_>
      <rects>
        <_>
          15 0 9 14 -1.</_>
        <_>
          18 0 3 14 3.</_></rects>
      <tilted>0</tilted></_>
    <_>
      <rects>
        <_>
          15 12 2 10 -1.</_>
        <_>
          15 17 2 5 2.</_></rects>
      <tilted>0</tilted></_>
    <_>
      <rects>
        <_>
          15 14 1 8 -1.</_>
        <_>
          15 18 1 4 2.</_></rects>
      <tilted>0</tilted></_>
    <_>
      <rects>
        <_>
          15 18 6 5 -1.</_>
        <_>
          18 18 3 5 2.</_></rects>
      <tilted>0</tilted></_>
    <_>
      <rects>
        <_>
          15 20 6 2 -1.</_>
        <_>
          18 20 3 2 2.</_></rects>
      <tilted>0</tilted></_>
    <_>
      <rects>
        <_>
          16 0 8 20 -1.</_>
        <_>
          16 0 4 10 2.</_>
        <_>
          20 10 4 10 2.</_></rects>
      <tilted>0</tilted></_>
    <_>
      <rects>
        <_>
          16 4 3 3 -1.</_>
        <_>
          17 4 1 3 3.</_></rects>
      <tilted>0</tilted></_>
    <_>
      <rects>
        <_>
          16 14 2 8 -1.</_>
        <_>
          16 18 2 4 2.</_></rects>
      <tilted>0</tilted></_>
    <_>
      <rects>
        <_>
          19 3 4 20 -1.</_>
        <_>
          19 3 2 10 2.</_>
        <_>
          21 13 2 10 2.</_></rects>
      <tilted>0</tilted></_>
    <_>
      <rects>
        <_>
          20 1 2 4 -1.</_>
        <_>
          20 1 1 2 2.</_>
        <_>
          21 3 1 2 2.</_></rects>
      <tilted>0</tilted></_>
    <_>
      <rects>
        <_>
          20 3 4 20 -1.</_>
        <_>
          20 3 2 10 2.</_>
        <_>
          22 13 2 10 2.</_></rects>
      <tilted>0</tilted></_>
    <_>
      <rects>
        <_>
          20 19 4 1 -1.</_>
        <_>
          22 19 2 1 2.</_></rects>
      <tilted>0</tilted></_>
    <_>
      <rects>
        <_>
          22 0 2 24 -1.</_>
        <_>
          22 0 1 12 2.</_>
        <_>
          23 12 1 12 2.</_></rects>
      <tilted>0</tilted></_>
    <_>
      <rects>
        <_>
          22 0 2 24 -1.</_>
        <_>
          22 12 2 12 2.</_></rects>
      <tilted>0</tilted></_>
    <_>
      <rects>
        <_>
          22 21 2 1 -1.</_>
        <_>
          23 21 1 1 2.</_></rects>
      <tilted>0</tilted></_>
    <_>
      <rects>
        <_>
          23 11 1 8 -1.</_>
        <_>
          23 15 1 4 2.</_></rects>
      <tilted>0</tilted></_></features></cascade>
</opencv_storage>
